<?xml version="1.0"?>
<opencv_storage>
<stage2>
  <maxWeakCount>21</maxWeakCount>
  <stageThreshold>-1.2113413810729980e+00</stageThreshold>
  <weakClassifiers>
    <_>
      <internalNodes>
        0 -1 60003 -1.6451796516776085e-02</internalNodes>
      <leafValues>
        6.3919925689697266e-01 -2.9588192701339722e-01</leafValues></_>
    <_>
      <internalNodes>
        0 -1 65466 1.4858602546155453e-02</internalNodes>
      <leafValues>
        -2.2342032194137573e-01 4.5821556448936462e-01</leafValues></_>
    <_>
      <internalNodes>
        0 -1 36118 -1.7737360671162605e-02</internalNodes>
      <leafValues>
        2.7556413412094116e-01 -3.6071780323982239e-01</leafValues></_>
    <_>
      <internalNodes>
        0 -1 91586 5.3697675466537476e-03</internalNodes>
      <leafValues>
        -2.4243941903114319e-01 3.1761541962623596e-01</leafValues></_>
    <_>
      <internalNodes>
        0 -1 60512 2.1893385797739029e-02</internalNodes>
      <leafValues>
        -1.8608303368091583e-01 5.5277150869369507e-01</leafValues></_>
    <_>
      <internalNodes>
        0 -1 239 3.6416143178939819e-02</internalNodes>
      <leafValues>
        -1.5980856120586395e-01 4.6385592222213745e-01</leafValues></_>
    <_>
      <internalNodes>
        0 -1 77858 2.5047799572348595e-03</internalNodes>
      <leafValues>
        -2.2663725912570953e-01 3.1508013606071472e-01</leafValues></_>
    <_>
      <internalNodes>
        0 -1 113049 -3.2179839909076691e-02</internalNodes>
      <leafValues>
        3.2964190840721130e-01 -1.5907217562198639e-01</leafValues></_>
    <_>
      <internalNodes>
        0 -1 51969 -2.4755088612437248e-02</internalNodes>
      <leafValues>
        5.0777667760848999e-01 -1.1359395831823349e-01</leafValues></_>
    <_>
      <internalNodes>
        0 -1 60862 -5.6435326114296913e-03</internalNodes>
      <leafValues>
        3.1470695137977600e-01 -2.0518729090690613e-01</leafValues></_>
    <_>
      <internalNodes>
        0 -1 42370 -3.7748344242572784e-02</internalNodes>
      <leafValues>
        -6.8856573104858398e-01 7.7873431146144867e-02</leafValues></_>
    <_>
      <internalNodes>
        0 -1 9948 8.6382206063717604e-04</internalNodes>
      <leafValues>
        9.2650450766086578e-02 -4.4325828552246094e-01</leafValues></_>
    <_>
      <internalNodes>
        0 -1 9948 -3.5536041832529008e-04</internalNodes>
      <leafValues>
        -3.7315142154693604e-01 1.3603021204471588e-01</leafValues></_>
    <_>
      <internalNodes>
        0 -1 69725 -8.4479525685310364e-03</internalNodes>
      <leafValues>
        -5.4466122388839722e-01 8.7359324097633362e-02</leafValues></_>
    <_>
      <internalNodes>
        0 -1 52677 4.9064144492149353e-02</internalNodes>
      <leafValues>
        7.1033418178558350e-02 -6.3618510961532593e-01</leafValues></_>
    <_>
      <internalNodes>
        0 -1 76850 1.6588895814493299e-03</internalNodes>
      <leafValues>
        -1.3938012719154358e-01 3.7347760796546936e-01</leafValues></_>
    <_>
      <internalNodes>
        0 -1 28927 -1.4969125390052795e-02</internalNodes>
      <leafValues>
        4.2968332767486572e-01 -9.6674069762229919e-02</leafValues></_>
    <_>
      <internalNodes>
        0 -1 66200 -2.0484868437051773e-02</internalNodes>
      <leafValues>
        2.9567214846611023e-01 -1.3740107417106628e-01</leafValues></_>
    <_>
      <internalNodes>
        0 -1 74716 7.3458105325698853e-03</internalNodes>
      <leafValues>
        -1.8773272633552551e-01 2.8550747036933899e-01</leafValues></_>
    <_>
      <internalNodes>
        0 -1 89364 3.2263383269309998e-02</internalNodes>
      <leafValues>
        8.0897703766822815e-02 -5.9684479236602783e-01</leafValues></_>
    <_>
      <internalNodes>
        0 -1 86632 -5.4172929376363754e-03</internalNodes>
      <leafValues>
        4.3512639403343201e-01 -9.6599884331226349e-02</leafValues></_></weakClassifiers></stage2>
</opencv_storage>
