<?xml version="1.0"?>
<opencv_storage>
<stage0>
  <maxWeakCount>11</maxWeakCount>
  <stageThreshold>-1.5002937316894531e+00</stageThreshold>
  <weakClassifiers>
    <_>
      <internalNodes>
        0 -1 39251 1.6951519995927811e-02</internalNodes>
      <leafValues>
        -5.2543461322784424e-01 5.8152478933334351e-01</leafValues></_>
    <_>
      <internalNodes>
        0 -1 84484 3.8539862725883722e-03</internalNodes>
      <leafValues>
        -5.0132220983505249e-01 5.3292560577392578e-01</leafValues></_>
    <_>
      <internalNodes>
        0 -1 112727 -2.4812072515487671e-02</internalNodes>
      <leafValues>
        5.6405812501907349e-01 -3.1688970327377319e-01</leafValues></_>
    <_>
      <internalNodes>
        0 -1 76876 3.9683636277914047e-03</internalNodes>
      <leafValues>
        -2.5802034139633179e-01 5.2809852361679077e-01</leafValues></_>
    <_>
      <internalNodes>
        0 -1 11891 1.6786288470029831e-02</internalNodes>
      <leafValues>
        -2.6826813817024231e-01 4.7924068570137024e-01</leafValues></_>
    <_>
      <internalNodes>
        0 -1 68037 -4.7905892133712769e-03</internalNodes>
      <leafValues>
        3.1919527053833008e-01 -3.3340001106262207e-01</leafValues></_>
    <_>
      <internalNodes>
        0 -1 95067 1.7236970365047455e-02</internalNodes>
      <leafValues>
        -2.1069452166557312e-01 4.4274306297302246e-01</leafValues></_>
    <_>
      <internalNodes>
        0 -1 954 3.9234945178031921e-01</internalNodes>
      <leafValues>
        1.2557317316532135e-01 -7.5537270307540894e-01</leafValues></_>
    <_>
      <internalNodes>
        0 -1 69248 -2.8821943327784538e-02</internalNodes>
      <leafValues>
        -8.1774359941482544e-01 8.7621562182903290e-02</leafValues></_>
    <_>
      <internalNodes>
        0 -1 73270 7.1636070497334003e-03</internalNodes>
      <leafValues>
        -2.6697573065757751e-01 2.4358665943145752e-01</leafValues></_>
    <_>
      <internalNodes>
        0 -1 69732 2.2931976243853569e-02</internalNodes>
      <leafValues>
        1.0368934273719788e-01 -7.1932631731033325e-01</leafValues></_></weakClassifiers></stage0>
</opencv_storage>
