<?xml version="1.0"?>
<opencv_storage>
<stage14>
  <maxWeakCount>100</maxWeakCount>
  <stageThreshold>-1.0761517286300659e+00</stageThreshold>
  <weakClassifiers>
    <_>
      <internalNodes>
        0 -1 66583 1.2916315346956253e-02</internalNodes>
      <leafValues>
        -2.8540944680571556e-02 3.3909013867378235e-01</leafValues></_>
    <_>
      <internalNodes>
        0 -1 82822 -8.2345813279971480e-04</internalNodes>
      <leafValues>
        1.2098322808742523e-01 -2.5438919663429260e-01</leafValues></_>
    <_>
      <internalNodes>
        0 -1 7680 8.9834429323673248e-02</internalNodes>
      <leafValues>
        -1.4042980968952179e-01 1.9804531335830688e-01</leafValues></_>
    <_>
      <internalNodes>
        0 -1 78375 2.8658998198807240e-03</internalNodes>
      <leafValues>
        -1.0647184401750565e-01 2.0571793615818024e-01</leafValues></_>
    <_>
      <internalNodes>
        0 -1 88400 1.8086828291416168e-02</internalNodes>
      <leafValues>
        -1.2713387608528137e-01 1.6864801943302155e-01</leafValues></_>
    <_>
      <internalNodes>
        0 -1 75375 9.1695813462138176e-03</internalNodes>
      <leafValues>
        -1.0616383701562881e-01 2.3164764046669006e-01</leafValues></_>
    <_>
      <internalNodes>
        0 -1 97026 7.9528875648975372e-03</internalNodes>
      <leafValues>
        9.5027066767215729e-02 -2.9781222343444824e-01</leafValues></_>
    <_>
      <internalNodes>
        0 -1 112089 -1.7687600120552815e-05</internalNodes>
      <leafValues>
        9.8816782236099243e-02 -1.7539784312248230e-01</leafValues></_>
    <_>
      <internalNodes>
        0 -1 112243 -1.7233263701200485e-02</internalNodes>
      <leafValues>
        -3.9913251996040344e-01 5.9207279235124588e-02</leafValues></_>
    <_>
      <internalNodes>
        0 -1 78728 3.1222840771079063e-03</internalNodes>
      <leafValues>
        -9.9330589175224304e-02 2.0568241178989410e-01</leafValues></_>
    <_>
      <internalNodes>
        0 -1 124809 -3.3510655630379915e-03</internalNodes>
      <leafValues>
        1.9394588470458984e-01 -9.0387195348739624e-02</leafValues></_>
    <_>
      <internalNodes>
        0 -1 67084 -1.3691660715267062e-03</internalNodes>
      <leafValues>
        -2.9029813408851624e-01 5.5294483900070190e-02</leafValues></_>
    <_>
      <internalNodes>
        0 -1 52027 -4.2414959520101547e-02</internalNodes>
      <leafValues>
        3.3646699786186218e-01 -5.3003251552581787e-02</leafValues></_>
    <_>
      <internalNodes>
        0 -1 95181 1.5114787966012955e-02</internalNodes>
      <leafValues>
        -1.1436673998832703e-01 1.6156019270420074e-01</leafValues></_>
    <_>
      <internalNodes>
        0 -1 100704 7.9747319221496582e-02</internalNodes>
      <leafValues>
        5.2105225622653961e-02 -3.6286851763725281e-01</leafValues></_>
    <_>
      <internalNodes>
        0 -1 75042 -1.0821006726473570e-03</internalNodes>
      <leafValues>
        -2.8837999701499939e-01 5.5186316370964050e-02</leafValues></_>
    <_>
      <internalNodes>
        0 -1 67086 1.6310689970850945e-03</internalNodes>
      <leafValues>
        6.6970899701118469e-02 -2.4800953269004822e-01</leafValues></_>
    <_>
      <internalNodes>
        0 -1 2537 -6.9850855506956577e-03</internalNodes>
      <leafValues>
        1.3682301342487335e-01 -1.2627848982810974e-01</leafValues></_>
    <_>
      <internalNodes>
        0 -1 47332 4.9156665802001953e-02</internalNodes>
      <leafValues>
        -5.7923555374145508e-02 2.6974561810493469e-01</leafValues></_>
    <_>
      <internalNodes>
        0 -1 2800 -2.8225276619195938e-02</internalNodes>
      <leafValues>
        2.9943484067916870e-01 -6.3362248241901398e-02</leafValues></_>
    <_>
      <internalNodes>
        0 -1 13308 -2.1285177767276764e-01</internalNodes>
      <leafValues>
        -5.7779967784881592e-01 3.3140022307634354e-02</leafValues></_>
    <_>
      <internalNodes>
        0 -1 92803 -1.6156784258782864e-03</internalNodes>
      <leafValues>
        2.4550342559814453e-01 -6.9435566663742065e-02</leafValues></_>
    <_>
      <internalNodes>
        0 -1 44082 6.6236913204193115e-02</internalNodes>
      <leafValues>
        3.1143931671977043e-02 -6.0529947280883789e-01</leafValues></_>
    <_>
      <internalNodes>
        0 -1 9048 6.6217326093465090e-04</internalNodes>
      <leafValues>
        7.0796504616737366e-02 -2.1992374956607819e-01</leafValues></_>
    <_>
      <internalNodes>
        0 -1 9048 -1.1596373515203595e-03</internalNodes>
      <leafValues>
        -2.8432291746139526e-01 7.1304321289062500e-02</leafValues></_>
    <_>
      <internalNodes>
        0 -1 101238 5.7062245905399323e-02</internalNodes>
      <leafValues>
        2.2907691076397896e-02 -6.6410076618194580e-01</leafValues></_>
    <_>
      <internalNodes>
        0 -1 92803 1.6577951610088348e-03</internalNodes>
      <leafValues>
        -7.1192607283592224e-02 2.2223146259784698e-01</leafValues></_>
    <_>
      <internalNodes>
        0 -1 70021 1.8889745697379112e-02</internalNodes>
      <leafValues>
        4.5627202838659286e-02 -3.9611354470252991e-01</leafValues></_>
    <_>
      <internalNodes>
        0 -1 5843 3.7713501602411270e-02</internalNodes>
      <leafValues>
        -4.2203895747661591e-02 4.0497517585754395e-01</leafValues></_>
    <_>
      <internalNodes>
        0 -1 72887 -9.4655447173863649e-04</internalNodes>
      <leafValues>
        -2.8854000568389893e-01 5.7504702359437943e-02</leafValues></_>
    <_>
      <internalNodes>
        0 -1 119628 -1.4518685638904572e-02</internalNodes>
      <leafValues>
        2.5961220264434814e-01 -6.3768655061721802e-02</leafValues></_>
    <_>
      <internalNodes>
        0 -1 107774 -7.0897176861763000e-02</internalNodes>
      <leafValues>
        -6.2385636568069458e-01 2.5349166244268417e-02</leafValues></_>
    <_>
      <internalNodes>
        0 -1 62954 -3.6576708225766197e-05</internalNodes>
      <leafValues>
        9.9631488323211670e-02 -1.4435020089149475e-01</leafValues></_>
    <_>
      <internalNodes>
        0 -1 96823 9.5298802480101585e-03</internalNodes>
      <leafValues>
        -6.2221791595220566e-02 2.3939704895019531e-01</leafValues></_>
    <_>
      <internalNodes>
        0 -1 102864 -2.8787708282470703e-01</internalNodes>
      <leafValues>
        -7.6059108972549438e-01 2.1858323365449905e-02</leafValues></_>
    <_>
      <internalNodes>
        0 -1 53315 1.4221740886569023e-02</internalNodes>
      <leafValues>
        2.1609626710414886e-02 -5.6332725286483765e-01</leafValues></_>
    <_>
      <internalNodes>
        0 -1 100463 2.5471395254135132e-01</internalNodes>
      <leafValues>
        2.1141078323125839e-02 -5.9365427494049072e-01</leafValues></_>
    <_>
      <internalNodes>
        0 -1 124804 1.0380889289081097e-03</internalNodes>
      <leafValues>
        5.1412541419267654e-02 -2.5886332988739014e-01</leafValues></_>
    <_>
      <internalNodes>
        0 -1 124804 3.8695055991411209e-05</internalNodes>
      <leafValues>
        -1.2566682696342468e-01 1.4179959893226624e-01</leafValues></_>
    <_>
      <internalNodes>
        0 -1 123499 4.9526048824191093e-03</internalNodes>
      <leafValues>
        -3.3621177077293396e-02 3.8424423336982727e-01</leafValues></_>
    <_>
      <internalNodes>
        0 -1 122947 -8.6079863831400871e-03</internalNodes>
      <leafValues>
        -4.6637630462646484e-01 3.0514774844050407e-02</leafValues></_>
    <_>
      <internalNodes>
        0 -1 124058 1.1615663766860962e-02</internalNodes>
      <leafValues>
        -4.7023598104715347e-02 2.9844173789024353e-01</leafValues></_>
    <_>
      <internalNodes>
        0 -1 124943 -4.1419275104999542e-02</internalNodes>
      <leafValues>
        4.3704113364219666e-01 -3.1769815832376480e-02</leafValues></_>
    <_>
      <internalNodes>
        0 -1 114470 -2.8392685577273369e-02</internalNodes>
      <leafValues>
        1.8058294057846069e-01 -7.5927838683128357e-02</leafValues></_>
    <_>
      <internalNodes>
        0 -1 35898 -1.3751710765063763e-02</internalNodes>
      <leafValues>
        2.2822165489196777e-01 -6.4817443490028381e-02</leafValues></_>
    <_>
      <internalNodes>
        0 -1 36537 -1.9484119256958365e-03</internalNodes>
      <leafValues>
        -3.1482213735580444e-01 5.1750537008047104e-02</leafValues></_>
    <_>
      <internalNodes>
        0 -1 77356 -1.2462250888347626e-03</internalNodes>
      <leafValues>
        2.0045560598373413e-01 -7.6338596642017365e-02</leafValues></_>
    <_>
      <internalNodes>
        0 -1 77356 2.0301903132349253e-03</internalNodes>
      <leafValues>
        -6.0266949236392975e-02 2.5468456745147705e-01</leafValues></_>
    <_>
      <internalNodes>
        0 -1 8473 4.2825387790799141e-03</internalNodes>
      <leafValues>
        6.0365375131368637e-02 -2.7543082833290100e-01</leafValues></_>
    <_>
      <internalNodes>
        0 -1 124021 -8.0073205754160881e-04</internalNodes>
      <leafValues>
        -2.0357917249202728e-01 6.8958744406700134e-02</leafValues></_>
    <_>
      <internalNodes>
        0 -1 112414 1.0629442520439625e-02</internalNodes>
      <leafValues>
        5.0657738000154495e-02 -2.7662682533264160e-01</leafValues></_>
    <_>
      <internalNodes>
        0 -1 6665 -3.4351140260696411e-02</internalNodes>
      <leafValues>
        -7.0069664716720581e-01 1.7290707677602768e-02</leafValues></_>
    <_>
      <internalNodes>
        0 -1 103140 1.1841605603694916e-01</internalNodes>
      <leafValues>
        2.7324955910444260e-02 -4.5183128118515015e-01</leafValues></_>
    <_>
      <internalNodes>
        0 -1 109105 2.6051759719848633e-02</internalNodes>
      <leafValues>
        2.1145857870578766e-02 -6.1062896251678467e-01</leafValues></_>
    <_>
      <internalNodes>
        0 -1 103074 2.5942323263734579e-03</internalNodes>
      <leafValues>
        -7.8608557581901550e-02 1.7530186474323273e-01</leafValues></_>
    <_>
      <internalNodes>
        0 -1 77274 4.9567231908440590e-03</internalNodes>
      <leafValues>
        -1.0108227282762527e-01 1.7638823390007019e-01</leafValues></_>
    <_>
      <internalNodes>
        0 -1 112588 -4.8499187687411904e-04</internalNodes>
      <leafValues>
        1.1160699278116226e-01 -1.3557273149490356e-01</leafValues></_>
    <_>
      <internalNodes>
        0 -1 24957 8.0611929297447205e-03</internalNodes>
      <leafValues>
        2.8227902948856354e-02 -4.3403813242912292e-01</leafValues></_>
    <_>
      <internalNodes>
        0 -1 123424 -1.0583683848381042e-02</internalNodes>
      <leafValues>
        6.2387698888778687e-01 -2.2513264790177345e-02</leafValues></_>
    <_>
      <internalNodes>
        0 -1 37935 6.7485158797353506e-04</internalNodes>
      <leafValues>
        6.6551044583320618e-02 -2.0110842585563660e-01</leafValues></_>
    <_>
      <internalNodes>
        0 -1 37935 -1.1544449807843193e-04</internalNodes>
      <leafValues>
        -1.6081883013248444e-01 8.4277443587779999e-02</leafValues></_>
    <_>
      <internalNodes>
        0 -1 123644 5.4619214497506618e-03</internalNodes>
      <leafValues>
        -6.6603548824787140e-02 2.0569825172424316e-01</leafValues></_>
    <_>
      <internalNodes>
        0 -1 104374 1.1569021735340357e-03</internalNodes>
      <leafValues>
        -1.2837156653404236e-01 1.0861417651176453e-01</leafValues></_>
    <_>
      <internalNodes>
        0 -1 90750 -1.5899531543254852e-02</internalNodes>
      <leafValues>
        -3.7696567177772522e-01 3.6859776824712753e-02</leafValues></_>
    <_>
      <internalNodes>
        0 -1 92120 1.5709747094660997e-03</internalNodes>
      <leafValues>
        -1.5096306800842285e-01 9.9185302853584290e-02</leafValues></_>
    <_>
      <internalNodes>
        0 -1 109108 8.1506567075848579e-03</internalNodes>
      <leafValues>
        3.9855271577835083e-02 -3.9773145318031311e-01</leafValues></_>
    <_>
      <internalNodes>
        0 -1 75746 -4.0857796557247639e-03</internalNodes>
      <leafValues>
        2.3271185159683228e-01 -7.4148476123809814e-02</leafValues></_>
    <_>
      <internalNodes>
        0 -1 84636 -3.7073027342557907e-03</internalNodes>
      <leafValues>
        2.8269228339195251e-01 -6.3317053020000458e-02</leafValues></_>
    <_>
      <internalNodes>
        0 -1 58858 3.9159604057203978e-05</internalNodes>
      <leafValues>
        -1.3131913542747498e-01 1.0776496678590775e-01</leafValues></_>
    <_>
      <internalNodes>
        0 -1 52404 1.5684029459953308e-01</internalNodes>
      <leafValues>
        -3.7288572639226913e-02 3.7561798095703125e-01</leafValues></_>
    <_>
      <internalNodes>
        0 -1 98736 3.6223284900188446e-02</internalNodes>
      <leafValues>
        2.2345298901200294e-02 -6.9797283411026001e-01</leafValues></_>
    <_>
      <internalNodes>
        0 -1 85125 2.6365574449300766e-03</internalNodes>
      <leafValues>
        4.5903928577899933e-02 -2.9606613516807556e-01</leafValues></_>
    <_>
      <internalNodes>
        0 -1 77909 -1.7247704090550542e-03</internalNodes>
      <leafValues>
        -2.8075629472732544e-01 4.8682905733585358e-02</leafValues></_>
    <_>
      <internalNodes>
        0 -1 12101 -6.1871603131294250e-02</internalNodes>
      <leafValues>
        -7.4554693698883057e-01 1.6130486503243446e-02</leafValues></_>
    <_>
      <internalNodes>
        0 -1 36152 3.1130584829952568e-05</internalNodes>
      <leafValues>
        -1.2116156518459320e-01 1.0903081297874451e-01</leafValues></_>
    <_>
      <internalNodes>
        0 -1 45384 4.3521984480321407e-05</internalNodes>
      <leafValues>
        -1.4933331310749054e-01 1.0388179868459702e-01</leafValues></_>
    <_>
      <internalNodes>
        0 -1 121700 4.0720976889133453e-02</internalNodes>
      <leafValues>
        -5.8507427573204041e-02 2.4249169230461121e-01</leafValues></_>
    <_>
      <internalNodes>
        0 -1 114914 -5.6850467808544636e-04</internalNodes>
      <leafValues>
        -2.1991875767707825e-01 6.7215651273727417e-02</leafValues></_>
    <_>
      <internalNodes>
        0 -1 93380 -4.8798741772770882e-03</internalNodes>
      <leafValues>
        3.2720094919204712e-01 -4.2112443596124649e-02</leafValues></_>
    <_>
      <internalNodes>
        0 -1 86473 -8.0893263220787048e-03</internalNodes>
      <leafValues>
        3.0168649554252625e-01 -4.5432321727275848e-02</leafValues></_>
    <_>
      <internalNodes>
        0 -1 9197 5.3284047171473503e-03</internalNodes>
      <leafValues>
        -7.8825801610946655e-02 1.9478467106819153e-01</leafValues></_>
    <_>
      <internalNodes>
        0 -1 53754 2.2107044234871864e-02</internalNodes>
      <leafValues>
        3.4565333276987076e-02 -4.4847479462623596e-01</leafValues></_>
    <_>
      <internalNodes>
        0 -1 18514 5.8699594810605049e-03</internalNodes>
      <leafValues>
        -3.6291580647230148e-02 3.9640364050865173e-01</leafValues></_>
    <_>
      <internalNodes>
        0 -1 20298 -5.5609205737709999e-03</internalNodes>
      <leafValues>
        3.6510625481605530e-01 -3.4375812858343124e-02</leafValues></_>
    <_>
      <internalNodes>
        0 -1 12167 7.7839987352490425e-03</internalNodes>
      <leafValues>
        5.1604624837636948e-02 -2.8386649489402771e-01</leafValues></_>
    <_>
      <internalNodes>
        0 -1 105039 2.1103078499436378e-02</internalNodes>
      <leafValues>
        2.3110087960958481e-02 -5.2230006456375122e-01</leafValues></_>
    <_>
      <internalNodes>
        0 -1 43594 -2.7696978300809860e-02</internalNodes>
      <leafValues>
        3.1733003258705139e-01 -4.4968709349632263e-02</leafValues></_>
    <_>
      <internalNodes>
        0 -1 52991 3.0129072256386280e-03</internalNodes>
      <leafValues>
        -1.0076545178890228e-01 1.5603502094745636e-01</leafValues></_>
    <_>
      <internalNodes>
        0 -1 22897 2.3412309587001801e-02</internalNodes>
      <leafValues>
        2.4734003469347954e-02 -5.7991254329681396e-01</leafValues></_>
    <_>
      <internalNodes>
        0 -1 80679 -4.8616237938404083e-02</internalNodes>
      <leafValues>
        -7.0343458652496338e-01 1.5601330436766148e-02</leafValues></_>
    <_>
      <internalNodes>
        0 -1 81920 5.8458972722291946e-02</internalNodes>
      <leafValues>
        2.0840268582105637e-02 -5.9231460094451904e-01</leafValues></_>
    <_>
      <internalNodes>
        0 -1 96694 2.2575581446290016e-02</internalNodes>
      <leafValues>
        3.5854674875736237e-02 -3.5523551702499390e-01</leafValues></_>
    <_>
      <internalNodes>
        0 -1 109902 -8.3106206730008125e-03</internalNodes>
      <leafValues>
        -3.0351427197456360e-01 4.3901938945055008e-02</leafValues></_>
    <_>
      <internalNodes>
        0 -1 124679 4.1240826249122620e-03</internalNodes>
      <leafValues>
        -3.6301977932453156e-02 4.0121772885322571e-01</leafValues></_>
    <_>
      <internalNodes>
        0 -1 114966 -3.2172475010156631e-02</internalNodes>
      <leafValues>
        -7.1797758340835571e-01 2.1502375602722168e-02</leafValues></_>
    <_>
      <internalNodes>
        0 -1 48845 1.7687600120552815e-05</internalNodes>
      <leafValues>
        -1.2241613864898682e-01 1.1104216426610947e-01</leafValues></_>
    <_>
      <internalNodes>
        0 -1 28809 1.0598744265735149e-03</internalNodes>
      <leafValues>
        5.9561908245086670e-02 -2.2448492050170898e-01</leafValues></_>
    <_>
      <internalNodes>
        0 -1 110430 2.2032838314771652e-03</internalNodes>
      <leafValues>
        -7.0968866348266602e-02 1.8589866161346436e-01</leafValues></_>
    <_>
      <internalNodes>
        0 -1 48249 1.7597932368516922e-02</internalNodes>
      <leafValues>
        2.3924658074975014e-02 -5.4219275712966919e-01</leafValues></_>
    <_>
      <internalNodes>
        0 -1 32890 -9.6317543648183346e-04</internalNodes>
      <leafValues>
        -2.1428316831588745e-01 6.0263782739639282e-02</leafValues></_></weakClassifiers></stage14>
</opencv_storage>
